<?xml version="1.0"?>
<opencv_storage>
<cascade>
  <stageType>BOOST</stageType>
  <featureType>LBP</featureType>
  <height>50</height>
  <width>50</width>
  <stageParams>
    <boostType>GAB</boostType>
    <minHitRate>9.9989998340606689e-01</minHitRate>
    <maxFalseAlarm>5.0000000000000000e-01</maxFalseAlarm>
    <weightTrimRate>9.4999999999999996e-01</weightTrimRate>
    <maxDepth>1</maxDepth>
    <maxWeakCount>100</maxWeakCount></stageParams>
  <featureParams>
    <maxCatCount>256</maxCatCount>
    <featSize>1</featSize></featureParams>
  <stageNum>15</stageNum>
  <stages>
    <!-- stage 0 -->
    <_>
      <maxWeakCount>2</maxWeakCount>
      <stageThreshold>-7.3685698211193085e-02</stageThreshold>
      <weakClassifiers>
        <_>
          <internalNodes>
            0 -1 22 -2147483519 553648256 16 352321538 0 134217728 114
            -1316880384</internalNodes>
          <leafValues>
            -9.8076921701431274e-01 8.8888889551162720e-01</leafValues></_>
        <_>
          <internalNodes>
            0 -1 25 589841 1 16777472 -717160447 -2147475456 0
            -1342144373 -1144389494</internalNodes>
          <leafValues>
            -9.6257460117340088e-01 9.5369267463684082e-01</leafValues></_></weakClassifiers></_>
    <!-- stage 1 -->
    <_>
      <maxWeakCount>2</maxWeakCount>
      <stageThreshold>-1.7145121097564697e-01</stageThreshold>
      <weakClassifiers>
        <_>
          <internalNodes>
            0 -1 3 -788414056 -2143289344 4194304 1359020032 32904
            -2147483648 163851 -83116021</internalNodes>
          <leafValues>
            -9.8039215803146362e-01 7.8947371244430542e-01</leafValues></_>
        <_>
          <internalNodes>
            0 -1 2 -787890046 64 0 1073807360 -2147450752 -2139062272
            32770 -620511221</internalNodes>
          <leafValues>
            -9.6092492341995239e-01 8.7714093923568726e-01</leafValues></_></weakClassifiers></_>
    <!-- stage 2 -->
    <_>
      <maxWeakCount>2</maxWeakCount>
      <stageThreshold>-1.7145121097564697e-01</stageThreshold>
      <weakClassifiers>
        <_>
          <internalNodes>
            0 -1 17 -788507955 -2113863660 4099 1258291209 -2145384241
            -2080374784 32907 -1999664637</internalNodes>
          <leafValues>
            -9.8039215803146362e-01 7.8947371244430542e-01</leafValues></_>
        <_>
          <internalNodes>
            0 -1 16 402936001 285278465 4353 352649217 134283466
            -1199570944 -2146959206 -7733238</internalNodes>
          <leafValues>
            -9.6092492341995239e-01 8.7714093923568726e-01</leafValues></_></weakClassifiers></_>
    <!-- stage 3 -->
    <_>
      <maxWeakCount>2</maxWeakCount>
      <stageThreshold>-2.0156110823154449e-01</stageThreshold>
      <weakClassifiers>
        <_>
          <internalNodes>
            0 -1 13 419681429 457179152 16777236 336855045 137
            -939491320 -1073723255 -2000519026</internalNodes>
          <leafValues>
            -9.8039215803146362e-01 7.8947371244430542e-01</leafValues></_>
        <_>
          <internalNodes>
            0 -1 7 -1874750691 -1811931135 65678 285212736 -2146938743
            134250496 -1996453751 -1920991102</internalNodes>
          <leafValues>
            -1. 7.7883106470108032e-01</leafValues></_></weakClassifiers></_>
    <!-- stage 4 -->
    <_>
      <maxWeakCount>1</maxWeakCount>
      <stageThreshold>7.5000000000000000e-01</stageThreshold>
      <weakClassifiers>
        <_>
          <internalNodes>
            0 -1 6 -805301539 1090519296 17367301 -644284271 268959746
            -2139095039 33403 -889061374</internalNodes>
          <leafValues>
            -1. 7.5000000000000000e-01</leafValues></_></weakClassifiers></_>
    <!-- stage 5 -->
    <_>
      <maxWeakCount>2</maxWeakCount>
      <stageThreshold>-1.8327134847640991e-01</stageThreshold>
      <weakClassifiers>
        <_>
          <internalNodes>
            0 -1 20 1384826765 17891609 98320 17367047 -1073708637
            -1442840575 -2147450487 -2084323063</internalNodes>
          <leafValues>
            -9.8076921701431274e-01 8.8888889551162720e-01</leafValues></_>
        <_>
          <internalNodes>
            0 -1 19 1367642178 16843025 16777488 17891331 -1845460823
            -1475869695 -2147434358 -1928757237</internalNodes>
          <leafValues>
            -1. 7.9749786853790283e-01</leafValues></_></weakClassifiers></_>
    <!-- stage 6 -->
    <_>
      <maxWeakCount>2</maxWeakCount>
      <stageThreshold>-2.1636854112148285e-01</stageThreshold>
      <weakClassifiers>
        <_>
          <internalNodes>
            0 -1 23 -1856650857 -2080276480 275 -854515711 -1593785943
            32768 140 -1064632152</internalNodes>
          <leafValues>
            -9.8019802570343018e-01 7.4358975887298584e-01</leafValues></_>
        <_>
          <internalNodes>
            0 -1 10 268554651 268435457 1073742096 1081346 680171673
            -939491326 -2130673522 -1987854325</internalNodes>
          <leafValues>
            -9.5995831489562988e-01 8.4509444236755371e-01</leafValues></_></weakClassifiers></_>
    <!-- stage 7 -->
    <_>
      <maxWeakCount>1</maxWeakCount>
      <stageThreshold>6.2790697813034058e-01</stageThreshold>
      <weakClassifiers>
        <_>
          <internalNodes>
            0 -1 0 889282722 -753336255 137737 1224806658 139296
            134742144 134971914 -531946961</internalNodes>
          <leafValues>
            -1. 6.2790697813034058e-01</leafValues></_></weakClassifiers></_>
    <!-- stage 8 -->
    <_>
      <maxWeakCount>2</maxWeakCount>
      <stageThreshold>1.0810811072587967e-01</stageThreshold>
      <weakClassifiers>
        <_>
          <internalNodes>
            0 -1 8 1602339229 1093730304 268468241 286326928 -2147450665
            -528384 16810237 -1417608950</internalNodes>
          <leafValues>
            -8.9189189672470093e-01 1.</leafValues></_>
        <_>
          <internalNodes>
            0 -1 11 1157743235 -1185873527 16777223 -1593831384 98475
            -2046754800 -2013257079 -938508245</internalNodes>
          <leafValues>
            -8.7198734283447266e-01 1.</leafValues></_></weakClassifiers></_>
    <!-- stage 9 -->
    <_>
      <maxWeakCount>2</maxWeakCount>
      <stageThreshold>-2.9929104447364807e-01</stageThreshold>
      <weakClassifiers>
        <_>
          <internalNodes>
            0 -1 24 -805217853 20971793 287326232 117964937 -1073184567
            -1602093056 -2011158117 -2004102993</internalNodes>
          <leafValues>
            -9.7979795932769775e-01 6.5853661298751831e-01</leafValues></_>
        <_>
          <internalNodes>
            0 -1 4 -786742695 268542019 -2147434239 -511602295
            -670842717 -2013134848 1208680584 27993600</internalNodes>
          <leafValues>
            -9.5782762765884399e-01 7.9028373956680298e-01</leafValues></_></weakClassifiers></_>
    <!-- stage 10 -->
    <_>
      <maxWeakCount>2</maxWeakCount>
      <stageThreshold>-1.5694864094257355e-01</stageThreshold>
      <weakClassifiers>
        <_>
          <internalNodes>
            0 -1 27 -402611951 1073741841 65553 1108938752 18915483
            -536870910 131211 -1425342290</internalNodes>
          <leafValues>
            -9.2452830076217651e-01 8.2352942228317261e-01</leafValues></_>
        <_>
          <internalNodes>
            0 -1 12 -2147462565 1099956225 268435477 824705024 135266729
            -1946157056 -2147479413 -618004407</internalNodes>
          <leafValues>
            -9.8047804832458496e-01 7.8659689426422119e-01</leafValues></_></weakClassifiers></_>
    <!-- stage 11 -->
    <_>
      <maxWeakCount>2</maxWeakCount>
      <stageThreshold>-3.1981801986694336e-01</stageThreshold>
      <weakClassifiers>
        <_>
          <internalNodes>
            0 -1 18 -535365127 285278210 81923 -788463616 -2147348446
            -2013200256 -1610440573 -1029488066</internalNodes>
          <leafValues>
            -9.7979795932769775e-01 6.5853661298751831e-01</leafValues></_>
        <_>
          <internalNodes>
            0 -1 26 -1035845553 1549500433 49281 1091567617 -1996079094
            -1031274496 -2147483512 -368365560</internalNodes>
          <leafValues>
            -9.7835457324981689e-01 7.3596942424774170e-01</leafValues></_></weakClassifiers></_>
    <!-- stage 12 -->
    <_>
      <maxWeakCount>2</maxWeakCount>
      <stageThreshold>4.0602970868349075e-02</stageThreshold>
      <weakClassifiers>
        <_>
          <internalNodes>
            0 -1 14 -74249 -134250495 -147453 -218033665 -2064128
            -33554433 -33554433 -285221953</internalNodes>
          <leafValues>
            -8.9189189672470093e-01 1.</leafValues></_>
        <_>
          <internalNodes>
            0 -1 15 1963032967 352387088 1091633173 -1459617783
            -2147454965 -2122317312 -1073732919 -1188413431</internalNodes>
          <leafValues>
            -9.1649919748306274e-01 9.3249487876892090e-01</leafValues></_></weakClassifiers></_>
    <!-- stage 13 -->
    <_>
      <maxWeakCount>2</maxWeakCount>
      <stageThreshold>1.2500000000000000e-01</stageThreshold>
      <weakClassifiers>
        <_>
          <internalNodes>
            0 -1 9 -524549 -728727529 536891457 1224737545 -33423131
            -33587201 2161918 -872417409</internalNodes>
          <leafValues>
            -8.7500000000000000e-01 1.</leafValues></_>
        <_>
          <internalNodes>
            0 -1 5 1073841661 1225850880 229421 -2130706415 1073752195
            -125698040 49324 -1458896869</internalNodes>
          <leafValues>
            -8.7399649620056152e-01 1.</leafValues></_></weakClassifiers></_>
    <!-- stage 14 -->
    <_>
      <maxWeakCount>2</maxWeakCount>
      <stageThreshold>-2.1496926248073578e-01</stageThreshold>
      <weakClassifiers>
        <_>
          <internalNodes>
            0 -1 21 -801844325 -2147221432 1073741825 67117193
            -2139094336 2129922 -2105376632 -542913848</internalNodes>
          <leafValues>
            -9.6078431606292725e-01 7.3684209585189819e-01</leafValues></_>
        <_>
          <internalNodes>
            0 -1 1 -1711193834 -1069334515 259 1607532544 -2013167485
            -2013265920 142639250 -179732318</internalNodes>
          <leafValues>
            -1. 7.4581503868103027e-01</leafValues></_></weakClassifiers></_></stages>
  <features>
    <_>
      <rect>
        0 1 14 15</rect></_>
    <_>
      <rect>
        2 7 14 9</rect></_>
    <_>
      <rect>
        3 0 7 16</rect></_>
    <_>
      <rect>
        3 6 7 13</rect></_>
    <_>
      <rect>
        6 9 9 11</rect></_>
    <_>
      <rect>
        6 23 7 4</rect></_>
    <_>
      <rect>
        9 42 4 2</rect></_>
    <_>
      <rect>
        10 14 9 6</rect></_>
    <_>
      <rect>
        10 24 6 2</rect></_>
    <_>
      <rect>
        14 17 9 5</rect></_>
    <_>
      <rect>
        14 33 11 5</rect></_>
    <_>
      <rect>
        15 16 11 9</rect></_>
    <_>
      <rect>
        16 27 5 3</rect></_>
    <_>
      <rect>
        16 33 10 5</rect></_>
    <_>
      <rect>
        17 2 8 15</rect></_>
    <_>
      <rect>
        17 16 11 6</rect></_>
    <_>
      <rect>
        21 47 2 1</rect></_>
    <_>
      <rect>
        24 38 7 4</rect></_>
    <_>
      <rect>
        26 13 8 12</rect></_>
    <_>
      <rect>
        26 41 8 3</rect></_>
    <_>
      <rect>
        29 41 6 3</rect></_>
    <_>
      <rect>
        31 36 3 3</rect></_>
    <_>
      <rect>
        32 2 1 1</rect></_>
    <_>
      <rect>
        32 38 4 3</rect></_>
    <_>
      <rect>
        34 38 5 3</rect></_>
    <_>
      <rect>
        35 9 4 4</rect></_>
    <_>
      <rect>
        35 17 3 4</rect></_>
    <_>
      <rect>
        38 43 2 1</rect></_></features></cascade>
</opencv_storage>
