<?xml version="1.0"?>
<opencv_storage>
<cascade>
  <stageType>BOOST</stageType>
  <featureType>LBP</featureType>
  <height>50</height>
  <width>50</width>
  <stageParams>
    <boostType>GAB</boostType>
    <minHitRate>9.9989998340606689e-01</minHitRate>
    <maxFalseAlarm>5.0000000000000000e-01</maxFalseAlarm>
    <weightTrimRate>9.4999999999999996e-01</weightTrimRate>
    <maxDepth>1</maxDepth>
    <maxWeakCount>100</maxWeakCount></stageParams>
  <featureParams>
    <maxCatCount>256</maxCatCount>
    <featSize>1</featSize></featureParams>
  <stageNum>15</stageNum>
  <stages>
    <!-- stage 0 -->
    <_>
      <maxWeakCount>3</maxWeakCount>
      <stageThreshold>-9.5640742778778076e-01</stageThreshold>
      <weakClassifiers>
        <_>
          <internalNodes>
            0 -1 18 -788164366 -1853816825 0 1128596225 -2138980198
            -1828650997 426635 -138679889</internalNodes>
          <leafValues>
            -8.9569163322448730e-01 6.5714287757873535e-01</leafValues></_>
        <_>
          <internalNodes>
            0 -1 19 -805062454 1360068613 84001362 1896841221
            -2146828145 -1979056124 142663818 -5510485</internalNodes>
          <leafValues>
            -8.2113486528396606e-01 7.4560910463333130e-01</leafValues></_>
        <_>
          <internalNodes>
            0 -1 13 -771647083 -1803484861 1073774609 -1794015227
            -2013232986 1652981770 1083293899 -238073057</internalNodes>
          <leafValues>
            -7.9241544008255005e-01 8.0267041921615601e-01</leafValues></_></weakClassifiers></_>
    <!-- stage 1 -->
    <_>
      <maxWeakCount>3</maxWeakCount>
      <stageThreshold>-1.1121929883956909e+00</stageThreshold>
      <weakClassifiers>
        <_>
          <internalNodes>
            0 -1 23 1910182075 -787930957 -1069481487 -216460989
            -2083798021 -176125941 -1944018805 -291857</internalNodes>
          <leafValues>
            -8.0341881513595581e-01 6.4601767063140869e-01</leafValues></_>
        <_>
          <internalNodes>
            0 -1 0 50536764 -637308649 209780819 -711516143 -2000090741
            -385875773 -1248218433 -4998485</internalNodes>
          <leafValues>
            -8.6741322278976440e-01 5.4548859596252441e-01</leafValues></_>
        <_>
          <internalNodes>
            0 -1 31 -502146649 -1525317487 268534175 -1929310208
            -922082393 -1438416696 -1677161797 -1998616424</internalNodes>
          <leafValues>
            -8.5426276922225952e-01 6.0854238271713257e-01</leafValues></_></weakClassifiers></_>
    <!-- stage 2 -->
    <_>
      <maxWeakCount>2</maxWeakCount>
      <stageThreshold>-6.2180614471435547e-01</stageThreshold>
      <weakClassifiers>
        <_>
          <internalNodes>
            0 -1 1 -380372994 -745439083 328401367 -778616701
            -1576959554 -259842008 1118296315 1943400491</internalNodes>
          <leafValues>
            -9.4086021184921265e-01 2.2488038241863251e-01</leafValues></_>
        <_>
          <internalNodes>
            0 -1 29 1491858991 25395203 86480 -1987657278 -938995558
            -897417216 -1572762900 -1970281765</internalNodes>
          <leafValues>
            -8.4668654203414917e-01 4.7627210617065430e-01</leafValues></_></weakClassifiers></_>
    <!-- stage 3 -->
    <_>
      <maxWeakCount>3</maxWeakCount>
      <stageThreshold>-1.1738467216491699e+00</stageThreshold>
      <weakClassifiers>
        <_>
          <internalNodes>
            0 -1 3 -839540017 -638615407 -519991015 -687374061
            -1400760305 134381696 -510981477 -5246469</internalNodes>
          <leafValues>
            -8.2142859697341919e-01 4.8872181773185730e-01</leafValues></_>
        <_>
          <internalNodes>
            0 -1 6 -785468781 -1316806071 -1853816333 -1282750125
            -1459494065 -100571053 1099399403 -1484802453</internalNodes>
          <leafValues>
            -7.9424738883972168e-01 5.8980792760848999e-01</leafValues></_>
        <_>
          <internalNodes>
            0 -1 33 1174533543 5821607 -1484434859 -1406709374
            -2004743641 -637202287 -1205217061 -1999898435</internalNodes>
          <leafValues>
            -9.4222611188888550e-01 4.9737900495529175e-01</leafValues></_></weakClassifiers></_>
    <!-- stage 4 -->
    <_>
      <maxWeakCount>3</maxWeakCount>
      <stageThreshold>-1.2269544601440430e+00</stageThreshold>
      <weakClassifiers>
        <_>
          <internalNodes>
            0 -1 36 -1043098147 -213675885 287674771 1430339841
            558227851 -1433558904 -780097379 -101715829</internalNodes>
          <leafValues>
            -8.0000001192092896e-01 5.3719007968902588e-01</leafValues></_>
        <_>
          <internalNodes>
            0 -1 2 1499341590 -569110521 -2063511147 -577433269 33777852
            -1467317111 -1610587950 -81569277</internalNodes>
          <leafValues>
            -9.0066677331924438e-01 4.4130578637123108e-01</leafValues></_>
        <_>
          <internalNodes>
            0 -1 7 -518770336 525473369 352342036 -581890799 -1979659879
            -1105616735 -1467971542 1802223848</internalNodes>
          <leafValues>
            -9.3928074836730957e-01 4.7371229529380798e-01</leafValues></_></weakClassifiers></_>
    <!-- stage 5 -->
    <_>
      <maxWeakCount>2</maxWeakCount>
      <stageThreshold>-4.0631121397018433e-01</stageThreshold>
      <weakClassifiers>
        <_>
          <internalNodes>
            0 -1 16 -480516897 -648986529 1359036767 16881939 1220707821
            -540376952 998326622 -67910953</internalNodes>
          <leafValues>
            -8.0306345224380493e-01 5.1612901687622070e-01</leafValues></_>
        <_>
          <internalNodes>
            0 -1 10 -784215746 -150929141 151065053 -49999607 541171863
            -527826686 -779580497 2005643931</internalNodes>
          <leafValues>
            -9.2244023084640503e-01 4.4553714990615845e-01</leafValues></_></weakClassifiers></_>
    <!-- stage 6 -->
    <_>
      <maxWeakCount>3</maxWeakCount>
      <stageThreshold>-1.2357168197631836e+00</stageThreshold>
      <weakClassifiers>
        <_>
          <internalNodes>
            0 -1 5 827188095 -82771758 9657 -642619382 -1710669201
            -1735081973 -1853863653 -13243789</internalNodes>
          <leafValues>
            -8.5436892509460449e-01 2.8994083404541016e-01</leafValues></_>
        <_>
          <internalNodes>
            0 -1 26 -1231600257 -251031438 -1207824099 1745519232
            1409286399 -1962729468 -921657128 -548287372</internalNodes>
          <leafValues>
            -7.8705501556396484e-01 5.3106528520584106e-01</leafValues></_>
        <_>
          <internalNodes>
            0 -1 38 -250924097 -2020370213 671388092 -464654181
            -1341931302 -91749885 -108689015 -53561076</internalNodes>
          <leafValues>
            -7.3860257863998413e-01 6.5826362371444702e-01</leafValues></_></weakClassifiers></_>
    <!-- stage 7 -->
    <_>
      <maxWeakCount>2</maxWeakCount>
      <stageThreshold>-6.0633957386016846e-01</stageThreshold>
      <weakClassifiers>
        <_>
          <internalNodes>
            0 -1 20 -641091234 2122449437 -2130083361 -462857973
            -2076135153 -1694433152 -330182963 -18878501</internalNodes>
          <leafValues>
            -8.5060238838195801e-01 3.0120483040809631e-01</leafValues></_>
        <_>
          <internalNodes>
            0 -1 32 -2082484265 575946819 1358971143 -1625571065
            268435478 688590857 -938833313 -1965191760</internalNodes>
          <leafValues>
            -9.0754443407058716e-01 4.1604524850845337e-01</leafValues></_></weakClassifiers></_>
    <!-- stage 8 -->
    <_>
      <maxWeakCount>3</maxWeakCount>
      <stageThreshold>-1.1990135908126831e+00</stageThreshold>
      <weakClassifiers>
        <_>
          <internalNodes>
            0 -1 28 -2056515077 -1144405803 285264219 -107806709
            891381931 -75497472 -888962661 -1098252084</internalNodes>
          <leafValues>
            -8.2949310541152954e-01 3.8775509595870972e-01</leafValues></_>
        <_>
          <internalNodes>
            0 -1 14 1065706423 -1822994413 1090617753 -602893992
            1372580159 -1340014078 -696122760 -6012575</internalNodes>
          <leafValues>
            -8.3908593654632568e-01 4.6308517456054688e-01</leafValues></_>
        <_>
          <internalNodes>
            0 -1 27 -661462889 -710917859 8622095 -77475771 931860249
            -47677310 -1868522876 -442883450</internalNodes>
          <leafValues>
            -7.4768280982971191e-01 5.9107613563537598e-01</leafValues></_></weakClassifiers></_>
    <!-- stage 9 -->
    <_>
      <maxWeakCount>2</maxWeakCount>
      <stageThreshold>-5.5119282007217407e-01</stageThreshold>
      <weakClassifiers>
        <_>
          <internalNodes>
            0 -1 9 -45645233 -931047417 3179389 89763667 683887551
            -356384748 -599594897 -30476297</internalNodes>
          <leafValues>
            -8.2075470685958862e-01 2.8662419319152832e-01</leafValues></_>
        <_>
          <internalNodes>
            0 -1 22 -19412994 -797765117 1166049630 -2033151865
            168315327 -1180693821 620927950 2126767791</internalNodes>
          <leafValues>
            -8.3781701326370239e-01 4.3538826704025269e-01</leafValues></_></weakClassifiers></_>
    <!-- stage 10 -->
    <_>
      <maxWeakCount>3</maxWeakCount>
      <stageThreshold>-1.0444096326828003e+00</stageThreshold>
      <weakClassifiers>
        <_>
          <internalNodes>
            0 -1 15 -1425026597 -581926891 755732691 -1177034675
            -744969793 -91684720 -242695191 -75166197</internalNodes>
          <leafValues>
            -7.7398723363876343e-01 5.3571426868438721e-01</leafValues></_>
        <_>
          <internalNodes>
            0 -1 17 1838233842 -567551028 1373705342 924756891
            1199832959 2059518114 1770458299 -358681850</internalNodes>
          <leafValues>
            -8.5311061143875122e-01 4.5855051279067993e-01</leafValues></_>
        <_>
          <internalNodes>
            0 -1 8 -1860876001 -753860544 1427118417 -578813679
            1224738336 -1191051136 419479983 -1375532637</internalNodes>
          <leafValues>
            -7.2701328992843628e-01 6.4247876405715942e-01</leafValues></_></weakClassifiers></_>
    <!-- stage 11 -->
    <_>
      <maxWeakCount>3</maxWeakCount>
      <stageThreshold>-1.0679928064346313e+00</stageThreshold>
      <weakClassifiers>
        <_>
          <internalNodes>
            0 -1 40 -1588342053 -1702324776 17850497 -1727938421
            -2080274245 -510656374 -2147299189 -82052449</internalNodes>
          <leafValues>
            -7.7105832099914551e-01 4.5762711763381958e-01</leafValues></_>
        <_>
          <internalNodes>
            0 -1 25 -261645028 386966020 1551893783 -247348477
            -1023273118 -343670360 -1995466099 -1091837601</internalNodes>
          <leafValues>
            -7.9957991838455200e-01 4.9204993247985840e-01</leafValues></_>
        <_>
          <internalNodes>
            0 -1 11 -214671275 -1755672415 1343328537 354746515
            142697216 -1979711335 1300300435 -590645993</internalNodes>
          <leafValues>
            -7.2604006528854370e-01 5.6792449951171875e-01</leafValues></_></weakClassifiers></_>
    <!-- stage 12 -->
    <_>
      <maxWeakCount>3</maxWeakCount>
      <stageThreshold>-1.2569234371185303e+00</stageThreshold>
      <weakClassifiers>
        <_>
          <internalNodes>
            0 -1 39 -1691092053 -1361866419 -711725001 -1148366834
            545574207 -2012642670 -1937208689 -1930706705</internalNodes>
          <leafValues>
            -8.1775701045989990e-01 3.0718955397605896e-01</leafValues></_>
        <_>
          <internalNodes>
            0 -1 24 1817997663 458596411 151093527 -209250284 -654220785
            -636268537 -1073534149 -1688712540</internalNodes>
          <leafValues>
            -8.7746524810791016e-01 4.1158527135848999e-01</leafValues></_>
        <_>
          <internalNodes>
            0 -1 35 1409624841 -666628080 -1877638735 1753747725
            -2113805903 -1207320439 -1165515639 -2070809633</internalNodes>
          <leafValues>
            -8.5075175762176514e-01 4.7459724545478821e-01</leafValues></_></weakClassifiers></_>
    <!-- stage 13 -->
    <_>
      <maxWeakCount>3</maxWeakCount>
      <stageThreshold>-1.2285625934600830e+00</stageThreshold>
      <weakClassifiers>
        <_>
          <internalNodes>
            0 -1 21 -251396611 -1457843755 -1752854319 565105415
            -212609382 -1930526588 -528418161 -608505800</internalNodes>
          <leafValues>
            -7.8807944059371948e-01 4.2187500000000000e-01</leafValues></_>
        <_>
          <internalNodes>
            0 -1 34 -1365083297 -1954397911 545728840 -2042462656
            1818341548 -343899749 -1726389592 -1348741187</internalNodes>
          <leafValues>
            -8.3995628356933594e-01 4.6591454744338989e-01</leafValues></_>
        <_>
          <internalNodes>
            0 -1 37 272191991 -1970794479 1258389683 -854418605
            -494727109 -1382969319 -108018940 -996361252</internalNodes>
          <leafValues>
            -9.0639775991439819e-01 4.5708557963371277e-01</leafValues></_></weakClassifiers></_>
    <!-- stage 14 -->
    <_>
      <maxWeakCount>3</maxWeakCount>
      <stageThreshold>-1.2652732133865356e+00</stageThreshold>
      <weakClassifiers>
        <_>
          <internalNodes>
            0 -1 12 -678489833 -75108352 549753295 -644906786 2013667339
            -1853259576 -788387794 -214209555</internalNodes>
          <leafValues>
            -8.1690138578414917e-01 2.9032257199287415e-01</leafValues></_>
        <_>
          <internalNodes>
            0 -1 30 -31493363 -645795439 -2130501302 -2007158747
            -1955880273 1619133353 -1993391685 -1446018009</internalNodes>
          <leafValues>
            -7.8443151712417603e-01 5.0266277790069580e-01</leafValues></_>
        <_>
          <internalNodes>
            0 -1 4 -448734706 -1248395005 1363219701 -112115646
            1669898379 -637501406 -1023227541 -206608863</internalNodes>
          <leafValues>
            -7.7116423845291138e-01 5.9343916177749634e-01</leafValues></_></weakClassifiers></_></stages>
  <features>
    <_>
      <rect>
        0 0 14 13</rect></_>
    <_>
      <rect>
        0 21 16 9</rect></_>
    <_>
      <rect>
        0 24 9 8</rect></_>
    <_>
      <rect>
        1 0 15 12</rect></_>
    <_>
      <rect>
        1 24 9 5</rect></_>
    <_>
      <rect>
        2 33 7 5</rect></_>
    <_>
      <rect>
        3 10 10 10</rect></_>
    <_>
      <rect>
        4 10 13 5</rect></_>
    <_>
      <rect>
        4 44 7 1</rect></_>
    <_>
      <rect>
        5 2 14 12</rect></_>
    <_>
      <rect>
        5 21 14 8</rect></_>
    <_>
      <rect>
        5 46 2 1</rect></_>
    <_>
      <rect>
        5 47 1 1</rect></_>
    <_>
      <rect>
        6 7 11 11</rect></_>
    <_>
      <rect>
        6 33 6 4</rect></_>
    <_>
      <rect>
        7 25 7 3</rect></_>
    <_>
      <rect>
        8 13 9 7</rect></_>
    <_>
      <rect>
        8 13 10 8</rect></_>
    <_>
      <rect>
        10 1 11 16</rect></_>
    <_>
      <rect>
        10 7 11 8</rect></_>
    <_>
      <rect>
        10 9 11 11</rect></_>
    <_>
      <rect>
        11 12 6 7</rect></_>
    <_>
      <rect>
        11 15 11 7</rect></_>
    <_>
      <rect>
        12 4 12 12</rect></_>
    <_>
      <rect>
        12 37 4 4</rect></_>
    <_>
      <rect>
        16 19 11 7</rect></_>
    <_>
      <rect>
        18 35 3 2</rect></_>
    <_>
      <rect>
        20 16 10 4</rect></_>
    <_>
      <rect>
        20 47 2 1</rect></_>
    <_>
      <rect>
        21 33 9 4</rect></_>
    <_>
      <rect>
        23 26 9 7</rect></_>
    <_>
      <rect>
        23 38 8 4</rect></_>
    <_>
      <rect>
        24 37 5 4</rect></_>
    <_>
      <rect>
        25 37 8 4</rect></_>
    <_>
      <rect>
        26 29 4 4</rect></_>
    <_>
      <rect>
        27 28 7 5</rect></_>
    <_>
      <rect>
        28 17 7 11</rect></_>
    <_>
      <rect>
        30 34 3 2</rect></_>
    <_>
      <rect>
        33 36 4 3</rect></_>
    <_>
      <rect>
        34 40 5 3</rect></_>
    <_>
      <rect>
        44 46 1 1</rect></_></features></cascade>
</opencv_storage>
