<?xml version="1.0"?>
<opencv_storage>
<cascade>
  <stageType>BOOST</stageType>
  <featureType>LBP</featureType>
  <height>50</height>
  <width>50</width>
  <stageParams>
    <boostType>GAB</boostType>
    <minHitRate>9.9989998340606689e-01</minHitRate>
    <maxFalseAlarm>5.0000000000000000e-01</maxFalseAlarm>
    <weightTrimRate>9.4999999999999996e-01</weightTrimRate>
    <maxDepth>1</maxDepth>
    <maxWeakCount>100</maxWeakCount></stageParams>
  <featureParams>
    <maxCatCount>256</maxCatCount>
    <featSize>1</featSize></featureParams>
  <stageNum>15</stageNum>
  <stages>
    <!-- stage 0 -->
    <_>
      <maxWeakCount>2</maxWeakCount>
      <stageThreshold>-2.0592707395553589e-01</stageThreshold>
      <weakClassifiers>
        <_>
          <internalNodes>
            0 -1 13 -729706280 -779091711 131072 -250146743 -2139062094
            -1073086459 545513643 -140514417</internalNodes>
          <leafValues>
            -9.2452830076217651e-01 6.5384614467620850e-01</leafValues></_>
        <_>
          <internalNodes>
            0 -1 20 -637091766 1343311872 196611 -149356543 175
            -1476263934 1216434379 -1075840593</internalNodes>
          <leafValues>
            -8.5977321863174438e-01 7.4054747819900513e-01</leafValues></_></weakClassifiers></_>
    <!-- stage 1 -->
    <_>
      <maxWeakCount>3</maxWeakCount>
      <stageThreshold>-1.2416738271713257e+00</stageThreshold>
      <weakClassifiers>
        <_>
          <internalNodes>
            0 -1 33 -796511747 -108326765 1342181969 1393786881
            -394024743 -74874880 -1065188977 -859057525</internalNodes>
          <leafValues>
            -8.9498805999755859e-01 5.2795028686523438e-01</leafValues></_>
        <_>
          <internalNodes>
            0 -1 12 1431418231 1886470429 323010901 -754905047
            -611180424 -397803000 -913817569 -81590222</internalNodes>
          <leafValues>
            -9.1304272413253784e-01 5.9230381250381470e-01</leafValues></_>
        <_>
          <internalNodes>
            0 -1 40 1481757135 -1945010165 -1608442605 1275363349
            -931100517 -1432288894 -276725349 -1999923064</internalNodes>
          <leafValues>
            -9.1973608732223511e-01 5.6635695695877075e-01</leafValues></_></weakClassifiers></_>
    <!-- stage 2 -->
    <_>
      <maxWeakCount>3</maxWeakCount>
      <stageThreshold>-1.0119599103927612e+00</stageThreshold>
      <weakClassifiers>
        <_>
          <internalNodes>
            0 -1 25 -669256740 -553549821 73755 -1492971503 -1610055510
            -1459060600 -895772501 -1168140069</internalNodes>
          <leafValues>
            -8.6046510934829712e-01 5.3333336114883423e-01</leafValues></_>
        <_>
          <internalNodes>
            0 -1 6 324129023 286851089 151064697 -1655697355 1208092923
            1770684448 -2004778866 2073715358</internalNodes>
          <leafValues>
            -8.5338085889816284e-01 6.2840443849563599e-01</leafValues></_>
        <_>
          <internalNodes>
            0 -1 8 -900872241 -1727004412 570425405 257249298
            -1073741639 -1719007096 -1060616049 -5561853</internalNodes>
          <leafValues>
            -7.7989923954010010e-01 7.2791004180908203e-01</leafValues></_></weakClassifiers></_>
    <!-- stage 3 -->
    <_>
      <maxWeakCount>3</maxWeakCount>
      <stageThreshold>-1.2093651294708252e+00</stageThreshold>
      <weakClassifiers>
        <_>
          <internalNodes>
            0 -1 36 -1067740935 -1810689789 196615 -754884479
            -2013228599 -671055742 -788348273 -823144033</internalNodes>
          <leafValues>
            -8.8009589910507202e-01 4.7239264845848083e-01</leafValues></_>
        <_>
          <internalNodes>
            0 -1 23 -111947681 -711749488 -1014922950 -49704951
            -2010543985 -1692794720 67635257 1326383427</internalNodes>
          <leafValues>
            -8.1058490276336670e-01 5.8663308620452881e-01</leafValues></_>
        <_>
          <internalNodes>
            0 -1 32 -1956717825 -1513123695 -2080304880 16810003
            -1320939389 -1450671479 -2004774557 -1882765125</internalNodes>
          <leafValues>
            -8.7117290496826172e-01 5.7561469078063965e-01</leafValues></_></weakClassifiers></_>
    <!-- stage 4 -->
    <_>
      <maxWeakCount>3</maxWeakCount>
      <stageThreshold>-1.1266541481018066e+00</stageThreshold>
      <weakClassifiers>
        <_>
          <internalNodes>
            0 -1 31 -619449377 -1560199023 -2128537331 -1257009127
            -402648679 -351797235 -1551725573 -1931757345</internalNodes>
          <leafValues>
            -8.4433960914611816e-01 4.3589743971824646e-01</leafValues></_>
        <_>
          <internalNodes>
            0 -1 0 -985161150 -749354713 -2130671421 -753729271
            -385840977 -930745971 -1341991253 -13383293</internalNodes>
          <leafValues>
            -8.3342999219894409e-01 5.7429903745651245e-01</leafValues></_>
        <_>
          <internalNodes>
            0 -1 7 -1206922322 -48300021 270139415 1896026499
            -2128494433 -1777401856 -2138518791 1933288107</internalNodes>
          <leafValues>
            -9.3421792984008789e-01 5.5111551284790039e-01</leafValues></_></weakClassifiers></_>
    <!-- stage 5 -->
    <_>
      <maxWeakCount>3</maxWeakCount>
      <stageThreshold>-1.2050120830535889e+00</stageThreshold>
      <weakClassifiers>
        <_>
          <internalNodes>
            0 -1 28 -113002501 -581959293 1208030239 -8056485
            -1323204373 -58063728 -2130163298 -67837720</internalNodes>
          <leafValues>
            -8.4615385532379150e-01 4.8344370722770691e-01</leafValues></_>
        <_>
          <internalNodes>
            0 -1 35 1477407199 -1156480235 1358959643 -1076815216
            -1602156373 -1182594933 -2138385925 -1914728276</internalNodes>
          <leafValues>
            -7.9230892658233643e-01 6.1533421277999878e-01</leafValues></_>
        <_>
          <internalNodes>
            0 -1 9 703059263 -1823383449 1065301 1962984656 -931051204
            -653787062 -930535410 -82438542</internalNodes>
          <leafValues>
            -8.9614683389663696e-01 5.4704332351684570e-01</leafValues></_></weakClassifiers></_>
    <!-- stage 6 -->
    <_>
      <maxWeakCount>3</maxWeakCount>
      <stageThreshold>-1.1531068086624146e+00</stageThreshold>
      <weakClassifiers>
        <_>
          <internalNodes>
            0 -1 24 957438303 -1081048041 184553759 -1659829504 547258
            -1131790208 411617439 -1710268358</internalNodes>
          <leafValues>
            -8.3490568399429321e-01 4.1025641560554504e-01</leafValues></_>
        <_>
          <internalNodes>
            0 -1 1 1699719322 -559828917 -1811185519 -736653935
            -399801922 -1202999294 -649216273 -169101154</internalNodes>
          <leafValues>
            -8.1799983978271484e-01 5.1326704025268555e-01</leafValues></_>
        <_>
          <internalNodes>
            0 -1 10 -182607365 -1877917551 25166303 -652801904
            -1996408293 -812906496 939534554 -14464202</internalNodes>
          <leafValues>
            -8.3146816492080688e-01 5.6718593835830688e-01</leafValues></_></weakClassifiers></_>
    <!-- stage 7 -->
    <_>
      <maxWeakCount>3</maxWeakCount>
      <stageThreshold>-1.3159976005554199e+00</stageThreshold>
      <weakClassifiers>
        <_>
          <internalNodes>
            0 -1 24 301029663 288408017 285212765 -1249394672 178274553
            -1199570805 -1719629365 -1160175446</internalNodes>
          <leafValues>
            -8.5294115543365479e-01 3.3720931410789490e-01</leafValues></_>
        <_>
          <internalNodes>
            0 -1 34 1613970005 994689034 16797843 -1694449529 -666433365
            -1331019645 302184634 -809766517</internalNodes>
          <leafValues>
            -7.9817914962768555e-01 5.6841546297073364e-01</leafValues></_>
        <_>
          <internalNodes>
            0 -1 4 1963668189 973209869 -637185956 -1925164327
            -1735838822 -542961507 1744834703 584792351</internalNodes>
          <leafValues>
            -8.5502779483795166e-01 5.6888860464096069e-01</leafValues></_></weakClassifiers></_>
    <!-- stage 8 -->
    <_>
      <maxWeakCount>2</maxWeakCount>
      <stageThreshold>-4.0750277042388916e-01</stageThreshold>
      <weakClassifiers>
        <_>
          <internalNodes>
            0 -1 5 -917506185 303415424 278249799 -112123773 -1140707237
            -1476378583 -1844877045 -615527829</internalNodes>
          <leafValues>
            -8.3758699893951416e-01 4.7651007771492004e-01</leafValues></_>
        <_>
          <internalNodes>
            0 -1 38 -1214811177 -1765736183 8458261 17268903 -2146458996
            -1969027070 -1056857592 -856759348</internalNodes>
          <leafValues>
            -8.8401281833648682e-01 4.4787570834159851e-01</leafValues></_></weakClassifiers></_>
    <!-- stage 9 -->
    <_>
      <maxWeakCount>3</maxWeakCount>
      <stageThreshold>-1.1746838092803955e+00</stageThreshold>
      <weakClassifiers>
        <_>
          <internalNodes>
            0 -1 41 -1714439209 51581058 -2130599653 -1656406005
            -2130078817 -670924544 -1728012049 -1614863905</internalNodes>
          <leafValues>
            -8.5964912176132202e-01 2.9281768202781677e-01</leafValues></_>
        <_>
          <internalNodes>
            0 -1 11 -788424353 -1140846379 1073742293 -11695701
            411067005 -394198886 -1065279061 -74194285</internalNodes>
          <leafValues>
            -7.9028230905532837e-01 4.9220624566078186e-01</leafValues></_>
        <_>
          <internalNodes>
            0 -1 22 -716992003 -876609377 268480907 1770111242
            -744422869 -1173732864 1644533902 -811474533</internalNodes>
          <leafValues>
            -6.7721921205520630e-01 6.9297695159912109e-01</leafValues></_></weakClassifiers></_>
    <!-- stage 10 -->
    <_>
      <maxWeakCount>3</maxWeakCount>
      <stageThreshold>-1.0192894935607910e+00</stageThreshold>
      <weakClassifiers>
        <_>
          <internalNodes>
            0 -1 29 -263211523 -645553661 -2130386669 -805071847
            -1328821329 -41943040 -888954081 -304091237</internalNodes>
          <leafValues>
            -7.8923767805099487e-01 4.6268656849861145e-01</leafValues></_>
        <_>
          <internalNodes>
            0 -1 26 -649346533 -1169237501 -1862204773 1654607954
            -528414705 277021194 -1553891112 -552863093</internalNodes>
          <leafValues>
            -7.1417391300201416e-01 6.5566462278366089e-01</leafValues></_>
        <_>
          <internalNodes>
            0 -1 42 832545727 185172226 -645873285 117645330 -1735818871
            -1555595232 -87959366 -1633294061</internalNodes>
          <leafValues>
            -7.6780211925506592e-01 6.0167139768600464e-01</leafValues></_></weakClassifiers></_>
    <!-- stage 11 -->
    <_>
      <maxWeakCount>4</maxWeakCount>
      <stageThreshold>-7.0361214876174927e-01</stageThreshold>
      <weakClassifiers>
        <_>
          <internalNodes>
            0 -1 19 -673861281 -335455351 -805069517 -440314991
            -863467255 -20873216 -2141994001 -273952725</internalNodes>
          <leafValues>
            -7.7533042430877686e-01 4.9206349253654480e-01</leafValues></_>
        <_>
          <internalNodes>
            0 -1 3 -1788899013 -729165489 822101020 -244839457 151073565
            -117407232 -622507257 -83267491</internalNodes>
          <leafValues>
            -9.0135961771011353e-01 4.1124337911605835e-01</leafValues></_>
        <_>
          <internalNodes>
            0 -1 37 -1620329521 -543620994 -787410899 -1022312185
            -1576951103 -2135834487 -1576433183 -1415400904</internalNodes>
          <leafValues>
            -8.0342966318130493e-01 5.5048781633377075e-01</leafValues></_>
        <_>
          <internalNodes>
            0 -1 39 1763853391 -1241313264 1359179871 -443344840
            -652205636 -1602158424 -679372360 -844381311</internalNodes>
          <leafValues>
            -8.0348938703536987e-01 5.8932459354400635e-01</leafValues></_></weakClassifiers></_>
    <!-- stage 12 -->
    <_>
      <maxWeakCount>3</maxWeakCount>
      <stageThreshold>-1.1560266017913818e+00</stageThreshold>
      <weakClassifiers>
        <_>
          <internalNodes>
            0 -1 14 -234770209 -1698090861 -1006513769 873287938
            278235567 -1039383296 -2029433075 -1052109</internalNodes>
          <leafValues>
            -8.1472682952880859e-01 3.3333334326744080e-01</leafValues></_>
        <_>
          <internalNodes>
            0 -1 18 -208601378 -435039929 -671018664 -1223585005
            -469644885 -1440710521 -2071952133 2048840199</internalNodes>
          <leafValues>
            -8.0964267253875732e-01 4.8158162832260132e-01</leafValues></_>
        <_>
          <internalNodes>
            0 -1 16 -242015770 1561560307 -1811770654 -581991867
            318982935 -553047408 -417279797 -544495997</internalNodes>
          <leafValues>
            -8.2288140058517456e-01 5.2204173803329468e-01</leafValues></_></weakClassifiers></_>
    <!-- stage 13 -->
    <_>
      <maxWeakCount>3</maxWeakCount>
      <stageThreshold>-1.2816759347915649e+00</stageThreshold>
      <weakClassifiers>
        <_>
          <internalNodes>
            0 -1 15 -249572641 -1253851001 1649492227 -1823407077
            176888079 -938999805 252832221 -73571369</internalNodes>
          <leafValues>
            -7.7483445405960083e-01 4.8031497001647949e-01</leafValues></_>
        <_>
          <internalNodes>
            0 -1 2 -674049254 -922316637 -1056882367 -148172527
            553943172 -259812726 -2146795400 -4722622</internalNodes>
          <leafValues>
            -8.7391376495361328e-01 4.5155593752861023e-01</leafValues></_>
        <_>
          <internalNodes>
            0 -1 27 -653200995 -2057825387 1207996873 -2007531200
            -1996488173 -1356333052 -1307958285 229370095</internalNodes>
          <leafValues>
            -9.7151213884353638e-01 3.6707231402397156e-01</leafValues></_></weakClassifiers></_>
    <!-- stage 14 -->
    <_>
      <maxWeakCount>3</maxWeakCount>
      <stageThreshold>-7.9250270128250122e-01</stageThreshold>
      <weakClassifiers>
        <_>
          <internalNodes>
            0 -1 21 -16777729 -16273417 1971580415 1068220219 -452727305
            -50659424 -1074270980 -525569</internalNodes>
          <leafValues>
            -7.0297032594680786e-01 8.6666667461395264e-01</leafValues></_>
        <_>
          <internalNodes>
            0 -1 30 1002307327 -1107460356 -1048577 -393218 -1
            -537067521 -1073807361 -1946298892</internalNodes>
          <leafValues>
            -6.4625728130340576e-01 7.1579241752624512e-01</leafValues></_>
        <_>
          <internalNodes>
            0 -1 17 1406786047 -787107437 1610613001 -720715583
            1089303201 -393672191 -532404219 -1148571422</internalNodes>
          <leafValues>
            -8.0532485246658325e-01 5.9690088033676147e-01</leafValues></_></weakClassifiers></_></stages>
  <features>
    <_>
      <rect>
        0 0 15 12</rect></_>
    <_>
      <rect>
        0 2 14 12</rect></_>
    <_>
      <rect>
        0 22 8 8</rect></_>
    <_>
      <rect>
        0 41 5 3</rect></_>
    <_>
      <rect>
        1 16 10 7</rect></_>
    <_>
      <rect>
        1 41 5 3</rect></_>
    <_>
      <rect>
        1 44 14 2</rect></_>
    <_>
      <rect>
        2 20 16 8</rect></_>
    <_>
      <rect>
        2 24 9 4</rect></_>
    <_>
      <rect>
        2 34 7 5</rect></_>
    <_>
      <rect>
        2 40 9 3</rect></_>
    <_>
      <rect>
        3 43 7 2</rect></_>
    <_>
      <rect>
        4 40 6 3</rect></_>
    <_>
      <rect>
        7 5 14 15</rect></_>
    <_>
      <rect>
        7 7 9 11</rect></_>
    <_>
      <rect>
        7 10 9 10</rect></_>
    <_>
      <rect>
        8 9 14 8</rect></_>
    <_>
      <rect>
        8 38 3 4</rect></_>
    <_>
      <rect>
        9 15 10 7</rect></_>
    <_>
      <rect>
        10 14 12 9</rect></_>
    <_>
      <rect>
        12 2 10 11</rect></_>
    <_>
      <rect>
        12 15 7 6</rect></_>
    <_>
      <rect>
        15 11 10 10</rect></_>
    <_>
      <rect>
        15 17 11 5</rect></_>
    <_>
      <rect>
        18 47 4 1</rect></_>
    <_>
      <rect>
        20 21 9 8</rect></_>
    <_>
      <rect>
        21 0 9 15</rect></_>
    <_>
      <rect>
        22 41 9 3</rect></_>
    <_>
      <rect>
        24 35 2 2</rect></_>
    <_>
      <rect>
        26 22 8 9</rect></_>
    <_>
      <rect>
        27 44 2 1</rect></_>
    <_>
      <rect>
        28 40 7 3</rect></_>
    <_>
      <rect>
        28 41 4 3</rect></_>
    <_>
      <rect>
        29 19 7 10</rect></_>
    <_>
      <rect>
        29 21 5 6</rect></_>
    <_>
      <rect>
        29 37 5 4</rect></_>
    <_>
      <rect>
        30 19 6 10</rect></_>
    <_>
      <rect>
        30 33 2 2</rect></_>
    <_>
      <rect>
        31 32 4 4</rect></_>
    <_>
      <rect>
        31 34 6 4</rect></_>
    <_>
      <rect>
        34 39 5 3</rect></_>
    <_>
      <rect>
        35 44 2 2</rect></_>
    <_>
      <rect>
        40 44 3 2</rect></_></features></cascade>
</opencv_storage>
