<?xml version="1.0"?>
<opencv_storage>
<cascade>
  <stageType>BOOST</stageType>
  <featureType>LBP</featureType>
  <height>50</height>
  <width>50</width>
  <stageParams>
    <boostType>GAB</boostType>
    <minHitRate>9.9989998340606689e-01</minHitRate>
    <maxFalseAlarm>5.0000000000000000e-01</maxFalseAlarm>
    <weightTrimRate>9.4999999999999996e-01</weightTrimRate>
    <maxDepth>1</maxDepth>
    <maxWeakCount>100</maxWeakCount></stageParams>
  <featureParams>
    <maxCatCount>256</maxCatCount>
    <featSize>1</featSize></featureParams>
  <stageNum>15</stageNum>
  <stages>
    <!-- stage 0 -->
    <_>
      <maxWeakCount>3</maxWeakCount>
      <stageThreshold>-1.5164897441864014e+00</stageThreshold>
      <weakClassifiers>
        <_>
          <internalNodes>
            0 -1 11 -137129829 -242544325 -1056603753 -681604909
            -1650206993 -1085667109 -894703137 -2097409</internalNodes>
          <leafValues>
            -9.3687039613723755e-01 1.7730496823787689e-01</leafValues></_>
        <_>
          <internalNodes>
            0 -1 7 -242192134 1931183011 1342296081 2111275867
            -716604675 -87783653 -343750677 -134217729</internalNodes>
          <leafValues>
            -9.1519570350646973e-01 3.3956694602966309e-01</leafValues></_>
        <_>
          <internalNodes>
            0 -1 32 -494927961 -1353215771 479318495 -1355427014
            -376804497 -338982689 -586487041 -1929393985</internalNodes>
          <leafValues>
            -9.1918629407882690e-01 4.3885329365730286e-01</leafValues></_></weakClassifiers></_>
    <!-- stage 1 -->
    <_>
      <maxWeakCount>3</maxWeakCount>
      <stageThreshold>-1.5184366703033447e+00</stageThreshold>
      <weakClassifiers>
        <_>
          <internalNodes>
            0 -1 4 -15467525 -1760349413 -1592667883 -39849161
            -1349779569 -1411006334 -985411345 -264321</internalNodes>
          <leafValues>
            -9.3306559324264526e-01 1.7647059261798859e-01</leafValues></_>
        <_>
          <internalNodes>
            0 -1 10 -740687874 -584346145 226695421 -46146081 -495980357
            -258236262 298683391 2008806335</internalNodes>
          <leafValues>
            -9.2808920145034790e-01 2.1268369257450104e-01</leafValues></_>
        <_>
          <internalNodes>
            0 -1 8 -1041784649 -607952431 -517897643 2145617363
            -1685120261 -72646502 -125209637 -33820177</internalNodes>
          <leafValues>
            -7.6681798696517944e-01 6.0893619060516357e-01</leafValues></_></weakClassifiers></_>
    <!-- stage 2 -->
    <_>
      <maxWeakCount>3</maxWeakCount>
      <stageThreshold>-1.4367280006408691e+00</stageThreshold>
      <weakClassifiers>
        <_>
          <internalNodes>
            0 -1 14 -2098689 -2140325 285905887 -1648649825 -119554049
            -2382198 -654070337 -9281</internalNodes>
          <leafValues>
            -9.0212494134902954e-01 4.0259739756584167e-01</leafValues></_>
        <_>
          <internalNodes>
            0 -1 13 -124306561 936874327 2073727327 -116145835
            -1546426499 -90077182 -611620609 -8945842</internalNodes>
          <leafValues>
            -8.5739642381668091e-01 2.6490041613578796e-01</leafValues></_>
        <_>
          <internalNodes>
            0 -1 25 -104141656 -1289856165 1359254111 -606251857
            -1736705092 -74940389 -494372101 -1140884833</internalNodes>
          <leafValues>
            -7.9950344562530518e-01 5.0371974706649780e-01</leafValues></_></weakClassifiers></_>
    <!-- stage 3 -->
    <_>
      <maxWeakCount>3</maxWeakCount>
      <stageThreshold>-1.6188656091690063e+00</stageThreshold>
      <weakClassifiers>
        <_>
          <internalNodes>
            0 -1 21 -41944065 -6301889 -786581025 -2630149 -1822970881
            -1953791358 -39583777 -5244177</internalNodes>
          <leafValues>
            -8.9030611515045166e-01 4.1935482621192932e-01</leafValues></_>
        <_>
          <internalNodes>
            0 -1 36 -1126171655 -807480357 -216309290 -2016415284
            -1290063107 -1709588337 -70714435 -1930428931</internalNodes>
          <leafValues>
            -9.0417188405990601e-01 1.5403118729591370e-01</leafValues></_>
        <_>
          <internalNodes>
            0 -1 29 922713849 804516306 -578726450 1868295995 989321463
            -281286261 2106571129 -269812740</internalNodes>
          <leafValues>
            -8.8259065151214600e-01 3.7052369117736816e-01</leafValues></_></weakClassifiers></_>
    <!-- stage 4 -->
    <_>
      <maxWeakCount>3</maxWeakCount>
      <stageThreshold>-1.5325475931167603e+00</stageThreshold>
      <weakClassifiers>
        <_>
          <internalNodes>
            0 -1 35 -67633155 -753142849 -117065733 -10522173
            -1432106305 -711222845 -407897361 -536870913</internalNodes>
          <leafValues>
            -9.0664035081863403e-01 8.2568809390068054e-02</leafValues></_>
        <_>
          <internalNodes>
            0 -1 17 -205850157 -1109420579 288748511 920571545 -46417929
            -2121574 -375134018 -211026946</internalNodes>
          <leafValues>
            -8.3114516735076904e-01 2.6833051443099976e-01</leafValues></_>
        <_>
          <internalNodes>
            0 -1 24 -270008329 -1082600481 -1784980009 1440527326
            -662217451 -1082186917 -877659336 -70660</internalNodes>
          <leafValues>
            -7.8397125005722046e-01 4.6259474754333496e-01</leafValues></_></weakClassifiers></_>
    <!-- stage 5 -->
    <_>
      <maxWeakCount>3</maxWeakCount>
      <stageThreshold>-1.6287759542465210e+00</stageThreshold>
      <weakClassifiers>
        <_>
          <internalNodes>
            0 -1 23 -203423745 -77900417 -774029441 -10903401
            -1146180177 -70580081 -140669954 -2105697</internalNodes>
          <leafValues>
            -9.0215265750885010e-01 1.3402061164379120e-01</leafValues></_>
        <_>
          <internalNodes>
            0 -1 34 -934408743 838858101 -49596265 -6706731 -984368149
            1533766650 -751574017 -268443729</internalNodes>
          <leafValues>
            -8.3636063337326050e-01 2.1323737502098083e-01</leafValues></_>
        <_>
          <internalNodes>
            0 -1 18 -505956296 -170467329 -1194076754 -137366562
            -502273106 -769949606 -354424081 2095037343</internalNodes>
          <leafValues>
            -9.2643600702285767e-01 3.3278882503509521e-01</leafValues></_></weakClassifiers></_>
    <!-- stage 6 -->
    <_>
      <maxWeakCount>3</maxWeakCount>
      <stageThreshold>-1.3411916494369507e+00</stageThreshold>
      <weakClassifiers>
        <_>
          <internalNodes>
            0 -1 44 -69730305 -585506321 -1852718721 -608726341
            -88889601 -124070781 -357893125 -70255873</internalNodes>
          <leafValues>
            -8.8020175695419312e-01 5.9090906381607056e-01</leafValues></_>
        <_>
          <internalNodes>
            0 -1 43 922733278 1440731378 2017170290 1979384173 -83248417
            -102607968 1773122445 -270901</internalNodes>
          <leafValues>
            -7.8988730907440186e-01 2.9671731591224670e-01</leafValues></_>
        <_>
          <internalNodes>
            0 -1 5 -113131591 -1212435694 1148055833 -1279527477
            -1996497921 -1411516079 225954543 -25481217</internalNodes>
          <leafValues>
            -7.5770723819732666e-01 5.0708544254302979e-01</leafValues></_></weakClassifiers></_>
    <!-- stage 7 -->
    <_>
      <maxWeakCount>3</maxWeakCount>
      <stageThreshold>-1.6232163906097412e+00</stageThreshold>
      <weakClassifiers>
        <_>
          <internalNodes>
            0 -1 6 -471859233 -37784717 1431687679 -39887617 -2028487937
            -7124815 -1543910721 -4199717</internalNodes>
          <leafValues>
            -9.0432500839233398e-01 9.6153847873210907e-02</leafValues></_>
        <_>
          <internalNodes>
            0 -1 38 2073766751 -2057143841 -1827695787 -1379363441
            -607399489 -276038885 -573617409 -855638595</internalNodes>
          <leafValues>
            -8.5023349523544312e-01 1.6926147043704987e-01</leafValues></_>
        <_>
          <internalNodes>
            0 -1 19 1853845371 -1881543217 -1995590817 -539233825
            1486584701 487284804 2028141563 -58821684</internalNodes>
          <leafValues>
            -8.8815283775329590e-01 3.4021130204200745e-01</leafValues></_></weakClassifiers></_>
    <!-- stage 8 -->
    <_>
      <maxWeakCount>3</maxWeakCount>
      <stageThreshold>-1.6583378314971924e+00</stageThreshold>
      <weakClassifiers>
        <_>
          <internalNodes>
            0 -1 1 -339738625 -7767213 1362874847 -188963 -780044869
            -3702646 -485500181 -5955</internalNodes>
          <leafValues>
            -9.0842735767364502e-01 -8.1300809979438782e-03</leafValues></_>
        <_>
          <internalNodes>
            0 -1 28 -167852609 1870123276 1360167411 -613322533
            -1177384354 -91608957 -544526913 -1144000901</internalNodes>
          <leafValues>
            -7.7668160200119019e-01 2.9030424356460571e-01</leafValues></_>
        <_>
          <internalNodes>
            0 -1 33 -1260556147 1423429977 -1051032708 -1366372002
            -1986400343 1203998883 -480249092 -1883242789</internalNodes>
          <leafValues>
            -8.7352609634399414e-01 3.7734618782997131e-01</leafValues></_></weakClassifiers></_>
    <!-- stage 9 -->
    <_>
      <maxWeakCount>3</maxWeakCount>
      <stageThreshold>-1.5788714885711670e+00</stageThreshold>
      <weakClassifiers>
        <_>
          <internalNodes>
            0 -1 41 -136317953 -1277849121 -264112263 -2384899
            -124542017 -64298829 -66584609 -1075839301</internalNodes>
          <leafValues>
            -9.0032786130905151e-01 2.8571428731083870e-02</leafValues></_>
        <_>
          <internalNodes>
            0 -1 31 -135006465 1934341023 -714613797 -2305556 -88691719
            -20840308 -101146372 -7572648</internalNodes>
          <leafValues>
            -7.7599626779556274e-01 2.7273577451705933e-01</leafValues></_>
        <_>
          <internalNodes>
            0 -1 20 2076029262 -22832193 -1865632263 -1226058789
            -1378252357 -23360094 -169956929 -155208849</internalNodes>
          <leafValues>
            -8.3144658803939819e-01 3.7408417463302612e-01</leafValues></_></weakClassifiers></_>
    <!-- stage 10 -->
    <_>
      <maxWeakCount>3</maxWeakCount>
      <stageThreshold>-1.4998146295547485e+00</stageThreshold>
      <weakClassifiers>
        <_>
          <internalNodes>
            0 -1 45 -12583969 -5791731 892408791 -671643753 -547749894
            -540311158 -1152136193 -2102337</internalNodes>
          <leafValues>
            -8.9053446054458618e-01 1.6883116960525513e-01</leafValues></_>
        <_>
          <internalNodes>
            0 -1 9 -7163913 -10488969 -804944522 -489500356 -1747248194
            -762656376 -1130501121 -21568033</internalNodes>
          <leafValues>
            -7.8412073850631714e-01 3.1715995073318481e-01</leafValues></_>
        <_>
          <internalNodes>
            0 -1 37 -1080036713 -1436360484 1561719679 522043868
            -666698780 -678657910 990878513 -1898321556</internalNodes>
          <leafValues>
            -8.8452506065368652e-01 3.6058983206748962e-01</leafValues></_></weakClassifiers></_>
    <!-- stage 11 -->
    <_>
      <maxWeakCount>4</maxWeakCount>
      <stageThreshold>-1.9979703426361084e+00</stageThreshold>
      <weakClassifiers>
        <_>
          <internalNodes>
            0 -1 39 -1077149705 -1074539553 -1751616257 -105262625
            -97993733 -1080954695 -1131743045 -3408977</internalNodes>
          <leafValues>
            -9.0189665555953979e-01 8.9108914136886597e-02</leafValues></_>
        <_>
          <internalNodes>
            0 -1 2 -250610057 2115475837 -1055699265 -69255085
            -1800717011 -20989941 1874791263 -278922641</internalNodes>
          <leafValues>
            -7.8198814392089844e-01 2.8727877140045166e-01</leafValues></_>
        <_>
          <internalNodes>
            0 -1 22 -1933371401 1054831001 -654180897 -8437291 -41718915
            -1278112865 967430108 -812618904</internalNodes>
          <leafValues>
            -7.1102273464202881e-01 4.8295217752456665e-01</leafValues></_>
        <_>
          <internalNodes>
            0 -1 27 1149238332 -626937030 -1182549665 -885558827
            1761313951 -122440749 -68428811 681831355</internalNodes>
          <leafValues>
            -9.2936295270919800e-01 3.9693716168403625e-01</leafValues></_></weakClassifiers></_>
    <!-- stage 12 -->
    <_>
      <maxWeakCount>3</maxWeakCount>
      <stageThreshold>-1.3777767419815063e+00</stageThreshold>
      <weakClassifiers>
        <_>
          <internalNodes>
            0 -1 16 -10486273 -547382497 -175647921 -2097779 -349725217
            -905248085 -389026929 -3146793</internalNodes>
          <leafValues>
            -8.8235294818878174e-01 5.1020407676696777e-01</leafValues></_>
        <_>
          <internalNodes>
            0 -1 30 -201392385 -74129065 -1820110617 -920927346
            -87313921 -1086678808 -1156658695 -119762004</internalNodes>
          <leafValues>
            -8.0580443143844604e-01 2.3102867603302002e-01</leafValues></_>
        <_>
          <internalNodes>
            0 -1 42 2103179891 -12381202 -95291489 -1476454521
            -576062680 -1279604718 -778912841 -892485665</internalNodes>
          <leafValues>
            -7.2645241022109985e-01 4.9267423152923584e-01</leafValues></_></weakClassifiers></_>
    <!-- stage 13 -->
    <_>
      <maxWeakCount>3</maxWeakCount>
      <stageThreshold>-1.6055693626403809e+00</stageThreshold>
      <weakClassifiers>
        <_>
          <internalNodes>
            0 -1 12 -2081 -1075850481 -849636881 -137917385 -597193729
            -940660728 2072493791 -68165937</internalNodes>
          <leafValues>
            -9.0211641788482666e-01 -5.0847455859184265e-02</leafValues></_>
        <_>
          <internalNodes>
            0 -1 40 1070545723 -1443638469 -1659729525 -148910821
            -344204321 -606483554 -81746437 -1074823969</internalNodes>
          <leafValues>
            -8.1017792224884033e-01 2.5884824991226196e-01</leafValues></_>
        <_>
          <internalNodes>
            0 -1 3 -104390073 -1075850889 567386687 -8416891 -1727727941
            -540449091 -102501249 -2376705</internalNodes>
          <leafValues>
            -7.4454402923583984e-01 4.4361338019371033e-01</leafValues></_></weakClassifiers></_>
    <!-- stage 14 -->
    <_>
      <maxWeakCount>3</maxWeakCount>
      <stageThreshold>-1.5390278100967407e+00</stageThreshold>
      <weakClassifiers>
        <_>
          <internalNodes>
            0 -1 26 -77996545 391485183 -2127702049 -180226657
            -639025153 -107507056 -651961345 -1080090179</internalNodes>
          <leafValues>
            -9.1038697957992554e-01 -1.8471337854862213e-01</leafValues></_>
        <_>
          <internalNodes>
            0 -1 0 1859495647 -555232417 1409503443 2144262559 -71074991
            -71774006 1540037214 -13403265</internalNodes>
          <leafValues>
            -8.3297830820083618e-01 1.4725440740585327e-01</leafValues></_>
        <_>
          <internalNodes>
            0 -1 15 -960040626 -36257612 -817244738 -1344564771
            1401377727 -68612837 -443582486 -13158273</internalNodes>
          <leafValues>
            -7.7589529752731323e-01 4.0758523344993591e-01</leafValues></_></weakClassifiers></_></stages>
  <features>
    <_>
      <rect>
        0 38 5 4</rect></_>
    <_>
      <rect>
        1 26 9 3</rect></_>
    <_>
      <rect>
        1 42 3 2</rect></_>
    <_>
      <rect>
        2 1 16 12</rect></_>
    <_>
      <rect>
        2 9 8 11</rect></_>
    <_>
      <rect>
        2 10 8 10</rect></_>
    <_>
      <rect>
        2 25 9 4</rect></_>
    <_>
      <rect>
        3 1 14 16</rect></_>
    <_>
      <rect>
        3 2 13 12</rect></_>
    <_>
      <rect>
        4 13 5 6</rect></_>
    <_>
      <rect>
        5 21 14 8</rect></_>
    <_>
      <rect>
        6 2 14 13</rect></_>
    <_>
      <rect>
        6 18 10 7</rect></_>
    <_>
      <rect>
        6 38 6 4</rect></_>
    <_>
      <rect>
        7 11 11 9</rect></_>
    <_>
      <rect>
        7 25 7 3</rect></_>
    <_>
      <rect>
        9 14 9 9</rect></_>
    <_>
      <rect>
        10 7 7 11</rect></_>
    <_>
      <rect>
        11 7 12 13</rect></_>
    <_>
      <rect>
        11 34 5 5</rect></_>
    <_>
      <rect>
        12 9 9 11</rect></_>
    <_>
      <rect>
        12 10 10 11</rect></_>
    <_>
      <rect>
        12 46 5 1</rect></_>
    <_>
      <rect>
        13 15 10 7</rect></_>
    <_>
      <rect>
        13 36 3 2</rect></_>
    <_>
      <rect>
        18 4 5 8</rect></_>
    <_>
      <rect>
        19 47 4 1</rect></_>
    <_>
      <rect>
        20 20 10 7</rect></_>
    <_>
      <rect>
        21 9 7 10</rect></_>
    <_>
      <rect>
        22 39 4 3</rect></_>
    <_>
      <rect>
        23 18 1 1</rect></_>
    <_>
      <rect>
        23 20 1 1</rect></_>
    <_>
      <rect>
        23 38 8 4</rect></_>
    <_>
      <rect>
        25 26 8 8</rect></_>
    <_>
      <rect>
        29 18 7 10</rect></_>
    <_>
      <rect>
        29 24 5 8</rect></_>
    <_>
      <rect>
        29 28 4 5</rect></_>
    <_>
      <rect>
        31 44 2 1</rect></_>
    <_>
      <rect>
        34 36 5 4</rect></_>
    <_>
      <rect>
        34 47 3 1</rect></_>
    <_>
      <rect>
        35 44 2 2</rect></_>
    <_>
      <rect>
        40 44 3 2</rect></_>
    <_>
      <rect>
        44 36 2 1</rect></_>
    <_>
      <rect>
        44 47 1 1</rect></_>
    <_>
      <rect>
        45 30 1 1</rect></_>
    <_>
      <rect>
        46 41 1 1</rect></_></features></cascade>
</opencv_storage>
